Language model created by QuickLM on Mon Mar 13 14:05:14 EDT 2017
Copyright (c) 1996-2010 Carnegie Mellon University and Alexander I. Rudnicky

The model is in standard ARPA format, designed by Doug Paul while he was at MITRE.

The code that was used to produce this language model is available in Open Source.
Please visit http://www.speech.cs.cmu.edu/tools/ for more information

The (fixed) discount mass is 0.5. The backoffs are computed using the ratio method.
This model based on a corpus of 3 sentences and 5 words

\data\
ngram 1=5
ngram 2=6
ngram 3=3

\1-grams:
-0.7782 </s> -0.3010
-0.7782 <s> -0.2218
-1.2553 NO -0.2218
-1.2553 OK -0.2218
-1.2553 YES -0.2218

\2-grams:
-0.7782 <s> NO 0.0000
-0.7782 <s> OK 0.0000
-0.7782 <s> YES 0.0000
-0.3010 NO </s> -0.3010
-0.3010 OK </s> -0.3010
-0.3010 YES </s> -0.3010

\3-grams:
-0.3010 <s> NO </s>
-0.3010 <s> OK </s>
-0.3010 <s> YES </s>

\end\
